{
  "architecture": [
    6,
    8,
    1
  ],
  "layers": [
    {
      "layer": 1,
      "order": "8x6",
      "weights": [
        [
          -1.0560890607713331,
          1.1681096428380746,
          -0.5450515398182871,
          1.2912776542892481,
          -0.24727067497039257,
          -2.364550388203175
        ],
        [
          1.4522159509031198,
          3.1677349640484294,
          -1.028692775543902,
          3.0884295284088608,
          0.09028746885723914,
          1.3986393475955987
        ],
        [
          -3.0891941689114994,
          -4.11215111566197,
          4.890942353992637,
          -2.5002725623405624,
          0.4810867961569505,
          1.4320061208812187
        ],
        [
          -0.3782126491997482,
          -2.1650937143869418,
          0.26585522626255337,
          -1.9112982810685886,
          -2.01842114949224,
          -2.7989223668502774
        ],
        [
          3.9593803024034524,
          -5.29285736414617,
          0.884092524300195,
          -3.5884737067735624,
          -0.12163329654868653,
          -0.13583825576046582
        ],
        [
          -0.371434495118484,
          -1.6646963271133586,
          0.021205206965950456,
          -1.4435175453889344,
          -0.476813323071696,
          -1.7242020736619181
        ],
        [
          0.14694544977887342,
          0.8886096248159804,
          -1.174420315482221,
          0.7092273143847813,
          -0.6656864756341933,
          -0.6267494766001432
        ],
        [
          0.9773466138788043,
          2.5656742891391584,
          -2.2620241900087374,
          0.9984163860117822,
          -0.9348321072685811,
          -0.5557620544907237
        ]
      ],
      "bias": [
        -0.5316889930943207,
        -0.16978476228098024,
        0.006444065931731033,
        0.9807433919220996,
        4.254938766127479,
        -0.41934646117842017,
        -0.22081112733890848,
        -0.5268852705647971
      ]
    },
    {
      "layer": 2,
      "order": "1x8",
      "weights": [
        [
          2.297663603022171,
          4.359071658391076,
          -6.3687068114450485,
          -3.099208142881603,
          -6.033042580146838,
          -1.829762946417356,
          1.2890798019170229,
          3.050587364793235
        ]
      ],
      "bias": 0.6156743626491109
    }
  ]
}