{
  "W1": [
    [
      1.9708993522184186,
      -1.2256166408570388,
      -0.7435753291195478,
      -0.1746522761988161,
      -0.026303696151497434,
      -0.6519323502284522
    ],
    [
      0.3677242732070896,
      -0.3983221118729245,
      -1.389072401667226,
      0.09107484798537824,
      -0.08596270004247737,
      -0.38241648104833526
    ],
    [
      2.9322976290479836,
      2.524705695426424,
      -4.156720143051448,
      2.2817400545204434,
      0.33877432790580114,
      -1.2690980903352194
    ],
    [
      0.4509790247560334,
      1.6035547317063714,
      -1.823606139264534,
      1.2625286845161958,
      0.4750921787795158,
      -0.23054958926028854
    ],
    [
      1.6810834889488901,
      5.384359072688549,
      -4.209667871239988,
      2.0060897294301716,
      -1.8902115919455187,
      -0.10297616731838843
    ],
    [
      0.008537117510870272,
      -0.9182137370577212,
      -0.7335731629429112,
      0.19317487903181899,
      0.5011533977786634,
      -0.7106932385360314
    ],
    [
      0.7373979865088139,
      -4.75164996227095,
      -0.30734150435759616,
      -3.310061299884237,
      -1.1795417910434367,
      -2.7588163659710507
    ],
    [
      3.2681004897252923,
      -4.861189653125445,
      1.4951990548191572,
      -4.579281861798618,
      -0.2807004127874368,
      1.4358602264796843
    ]
  ],
  "b1": [
    -0.06274939491543348,
    -0.2049664177012377,
    -0.7588768258527904,
    -0.7121248615374772,
    -1.9487154707912842,
    -0.5174253757989679,
    2.3591871341336628,
    2.4382433924175086
  ],
  "W2": [
    [
      -0.5474498563579641,
      -0.15061908299452267,
      -0.2983917889499448,
      -0.8137726118298604,
      -0.719388510616828,
      0.2427916471731014,
      0.09898999709160324,
      0.2290193562251181
    ],
    [
      -0.34996444085877987,
      -0.9527852621756042,
      -1.4028286161750732,
      -0.7116740353872292,
      -1.2493161271976352,
      -0.20117598026185146,
      1.2178434625504355,
      0.9873589178929196
    ],
    [
      -0.35890690324179453,
      -0.8156936188130857,
      -1.0087733596214294,
      -0.30748207995394966,
      -1.7451441965195398,
      -0.3146703316778817,
      0.8408045445469254,
      0.609743676140813
    ],
    [
      0.17179802718317844,
      -0.4057503639063609,
      -1.13875296147017,
      -0.5859078505954329,
      -1.3539989081228534,
      -0.3261421362880138,
      0.3914812418430466,
      0.32238600631211994
    ],
    [
      -0.18689456257434298,
      -0.2523981075722328,
      1.063283661194689,
      0.6507933492659506,
      0.7960673233327579,
      0.2304530279668516,
      -1.602701942102044,
      -0.48984795976785583
    ],
    [
      1.7721271005133659,
      0.5557759850690248,
      -0.5321251524496334,
      -0.9136789852501354,
      -2.5592802237810557,
      0.6081863097006839,
      3.8844696557813267,
      4.937265213622274
    ],
    [
      1.3827038419128876,
      0.007439244887558004,
      2.7525501240673855,
      1.0545144893803673,
      3.101663749089864,
      0.042800278080833594,
      -1.629064659531558,
      -1.8170987023112788
    ],
    [
      -0.6101511117545824,
      -0.7052337872964881,
      -2.5747099162371327,
      -0.6201060679033011,
      -2.428789195338045,
      -0.42369262306040734,
      1.4721091796856371,
      1.1954582243681942
    ]
  ],
  "b2": [
    -0.4070765328919797,
    -0.5026168086577163,
    -0.3207866739856638,
    -0.19114901510411256,
    -0.7282683526894244,
    -0.38558910131809626,
    -0.10053398988376973,
    -0.0025394197849008928
  ],
  "W3": [
    [
      -0.5001207085733665,
      -1.7373194284618454,
      -1.594378806873741,
      -1.2446523829212068,
      1.5503102801706998,
      -5.617851707472026,
      4.368920328488158,
      -3.18915381512462
    ]
  ],
  "b3": 1.6306939219498284
}