{"W1": [[-0.47126914343834975, -0.9013766587941223, 0.7840853599346974, -0.30617627105119816], [-1.3262998158021204, -1.510481897972003, 1.419438983581598, -0.8587049508795617], [5.041887906104684, -6.604674431856339, -0.9500554381766242, -4.7330954268135255], [-1.1872140654910388, -3.8881789802054594, 3.5942737691444377, -1.773181760522964], [3.074518841969819, 3.418096674212157, -2.704573067864495, 4.110870572915971], [-1.6741080717019745, -0.9838758216403475, 1.2529212817306055, -1.2975093623646061], [0.26563885342459126, 1.2338128199350924, -2.068463971590672, 0.7911406325929475], [0.4614437635874478, 3.817996778537073, -3.7317362330231947, 1.5087919422292593]], "b1": [-0.5793984463070928, -0.1848779973625789, 5.42464671552214, -0.35929683631397263, -0.5360272576449797, -0.6322607707023941, -0.9415946058359052, -0.9505869534844505], "W2": [[-0.8917200955005685, -1.6661366754380922, -4.792681709213559, -3.9083083876726947, 4.296607978238598, -1.6685884790065377, 1.733302827843746, 3.4375323677227376]], "b2": -0.684089157821478}