{
  "W1": [
    [
      0.536573244458538,
      2.433356314493024,
      -1.771117896442665,
      -0.810278945328749,
      -3.059207579642653,
      1.048288582513748
    ],
    [
      -0.01212009580439123,
      -5.516394667165145,
      -1.3378931841817563,
      -3.177093043626247,
      -1.265019663347665,
      -3.0648265400882013
    ],
    [
      -7.19813708095619,
      2.5109833980764917,
      1.8931901874920114,
      3.7028468440995677,
      0.46948193377261876,
      -1.1370882817652934
    ],
    [
      6.484792032747173,
      2.4838528895123493,
      -5.908058858800247,
      1.6154589605957517,
      -0.29953393290521085,
      -2.174706905693627
    ],
    [
      -1.3890124071693708,
      -7.799966113961673,
      5.049822570120474,
      -4.147938111471278,
      0.37493784757839,
      0.3096278104472481
    ],
    [
      0.7444981665890343,
      -1.0916764805524088,
      -0.5475620413503276,
      1.1796940393168216,
      1.1348078166068154,
      -0.713520462051914
    ],
    [
      -2.032526770135363,
      1.3441992639372098,
      -0.6107355177079976,
      0.8498434532445365,
      -0.986049508845754,
      0.5415722378779809
    ],
    [
      -5.262221733721051,
      4.791235031459789,
      -3.570039021326452,
      4.494782431950938,
      0.9988587425875123,
      0.7300643579372126
    ]
  ],
  "b1": [
    -1.5127754977388892,
    3.725791552448926,
    -1.6314922052973415,
    -0.671368251503936,
    1.8901868471354701,
    -0.14010230323114994,
    -1.5189857254565504,
    -2.6270479455168743
  ],
  "W2": [
    [
      0.6390678151222736,
      -0.25012213449338905,
      1.500327457280467,
      2.5630632098878308,
      -2.4979987042000307,
      0.4193704199942339,
      -1.301061651536441,
      0.40522852682348204
    ],
    [
      0.631222491170842,
      -1.0270922139476861,
      0.07106805923843934,
      1.6362189248106704,
      -1.6017950944562438,
      -0.42981084613295756,
      0.050269294937706856,
      0.9791979430199783
    ],
    [
      -0.9791741749241,
      0.9609079784576169,
      0.045530016665883175,
      -2.703203198000398,
      1.7655433140556673,
      -1.4047897362170332,
      0.38429056174031206,
      -1.292450439468718
    ],
    [
      0.8474330893408648,
      -2.214154105790695,
      4.749117128963042,
      -1.2223329614116025,
      -1.6046402703858373,
      -1.7221762940870124,
      1.4973689377986596,
      4.829521409675445
    ],
    [
      -1.2922772411987529,
      2.465918426974201,
      -0.3536034237517017,
      -2.5897557743285704,
      3.3710227958949726,
      0.8127276610677143,
      0.017714435605115066,
      -2.41386211893851
    ],
    [
      -0.39268070374488023,
      0.06788601656618604,
      0.09295212335707675,
      0.7935781110766037,
      -1.3329101067331908,
      -0.8173293097575209,
      0.017247769587949168,
      0.8405916809628288
    ],
    [
      -1.7946206489904875,
      1.9051332748130982,
      -0.4262604763758129,
      -3.8064389489151265,
      3.738198594218103,
      -1.608849859183288,
      -0.2589934744511393,
      -1.539381344569206
    ],
    [
      -0.22303921253448297,
      -1.3650091367110915,
      1.2717188131883577,
      -0.05351588032261202,
      -1.729126578863683,
      -0.8197718691183793,
      0.18940381967993847,
      0.9820367897870602
    ]
  ],
  "b2": [
    -2.0069941285906423,
    -1.6840585305301623,
    -0.7104055904539679,
    -2.8472767708114657,
    2.179134331736699,
    -1.0790721008062705,
    -1.1479121500235219,
    -1.5163784381112873
  ],
  "W3": [
    [
      2.5964038339172855,
      1.5913166102906933,
      -2.6752532266283007,
      3.6623400288723924,
      -2.967517553867219,
      0.7986454597791663,
      -4.721518936992953,
      0.676765247289545
    ]
  ],
  "b3": 0.3534243297282205
}