{
  "W1": [
    [
      0.3654910019176527,
      -2.5680020573543114,
      2.1142028311862964,
      -0.3933173140508695,
      0.10279241153476279,
      -0.3122999975807785
    ],
    [
      -0.12039495407288471,
      -2.6075677554444314,
      0.3332862584372803,
      -2.831394820041516,
      -2.180638150249663,
      -3.707568918173427
    ],
    [
      0.36620783131149753,
      -2.37201461386347,
      0.864860678838143,
      -0.878792712618433,
      0.06396739039101676,
      -0.9767038164620487
    ],
    [
      -1.518446937799878,
      -4.710647690530113,
      1.1723794220251087,
      -3.6897515512858607,
      -0.48965986017834967,
      -3.1507781897001763
    ],
    [
      0.12945878412447434,
      -2.643130504207072,
      1.722018901523616,
      -0.15216093313363682,
      0.3958074437296033,
      -0.5093627276435738
    ],
    [
      -3.5921254268761067,
      -6.1673233403394665,
      5.8838051026253035,
      -3.717546346823474,
      0.8264757786153304,
      1.452140120083338
    ],
    [
      -1.3606587772455017,
      1.2883793615741876,
      -0.29018612615292,
      1.759525792729279,
      -0.2256326721224364,
      -1.9127017235164034
    ],
    [
      -5.390797339883516,
      4.030813473303817,
      -0.2039771876764751,
      4.5610191235282045,
      0.20129743277886028,
      -0.9490142065262295
    ]
  ],
  "b1": [
    0.14468782467894734,
    1.2227040265471607,
    0.07696137343837985,
    0.3166597742684687,
    0.4725411446268447,
    1.5132967350739133,
    -1.2382916785576388,
    -2.6860022894022313
  ],
  "W2": [
    [
      1.7944711489022773,
      2.116234693584714,
      1.7915110811099706,
      2.2603391732369413,
      1.6491053374769673,
      2.568144365215193,
      -1.0391681257548326,
      -3.7239419487717007
    ],
    [
      -0.8934370821447865,
      -0.8327229726726315,
      0.1753696648755339,
      -1.9383898511167843,
      -1.0704924609278021,
      -2.3461510441374003,
      0.6086253924497694,
      2.001894605702725
    ],
    [
      0.39762608556561746,
      0.10778840168831774,
      -0.37285028839455525,
      0.36542405242142656,
      -0.2153302053002251,
      0.3502902460680301,
      -0.38210618201324414,
      -0.1410872897986157
    ],
    [
      -0.20043927409510387,
      1.352404862012055,
      -0.30653043569424887,
      2.099405941816915,
      -0.12684633280484553,
      4.174690447165418,
      -0.4405640002355005,
      -1.3270145195868603
    ],
    [
      0.5196907127964694,
      -1.0343935335233083,
      -0.26297411820502,
      -1.4135044762281088,
      0.6037999405015948,
      -3.6270277097512396,
      0.6872062829250962,
      1.2140894876793267
    ],
    [
      -1.7772121661297504,
      -0.6414991840760432,
      -1.1942987979988755,
      -2.043063336552775,
      -1.4417076150864607,
      -1.8171632797518644,
      0.9651757946443259,
      2.007363148033151
    ],
    [
      0.01660901256065242,
      0.19336741871362334,
      -0.5239088871317872,
      0.3960776494483187,
      0.014654737885681316,
      0.44424544405889144,
      -0.344369885599024,
      0.12083959302038234
    ],
    [
      -0.44289901244803326,
      0.11919243061917344,
      -0.7646126240230874,
      -0.8609656787461014,
      -1.0410297131767867,
      -0.8001016190197703,
      0.51119174857712,
      0.6838834509546524
    ]
  ],
  "b2": [
    0.5809363657930621,
    -0.10869053832910672,
    -0.884612381574622,
    -3.3298486876254536,
    2.0913770599682207,
    -0.6271561908824372,
    -0.9772789653408628,
    -0.676874076491472
  ],
  "W3": [
    [
      -4.492853909804877,
      2.467498941500949,
      -0.34224233019034495,
      -4.1520283629387515,
      3.37373730394604,
      3.0773182944588897,
      -0.3068604833992607,
      1.0329218271984983
    ]
  ],
  "b3": 0.973279008020393
}