{
  "W1": [
    [
      -1.9032933290062481,
      -1.8340780696904733,
      2.746961279514229,
      -1.4171295839929077,
      0.3767677635809889,
      1.8341747241574482
    ],
    [
      -0.5058160708597765,
      -2.611837251481835,
      0.22855410335289272,
      -1.8842712130684023,
      -0.3244868238687068,
      -2.1359632280642633
    ],
    [
      -0.46614961243039715,
      0.5146545780466545,
      -1.060098547521174,
      -0.22069327771485406,
      -0.09460979113235048,
      0.17057267242617954
    ],
    [
      0.7525851664514422,
      3.923253743435626,
      -2.8176348803197375,
      1.465239096489596,
      -1.2324427578320005,
      0.20653953467216588
    ],
    [
      4.221755390685863,
      -3.787555256939147,
      -0.06830731041457117,
      -3.4081384836340196,
      -0.11208064470697272,
      0.756727788815002
    ],
    [
      -2.3258344051293034,
      -3.3382988095998454,
      3.330958345477247,
      -2.7355862392985095,
      0.2998401416757327,
      0.889237805249825
    ],
    [
      0.3963800114001964,
      -2.4605540086434576,
      0.2780779427390183,
      -2.2594152851718228,
      -1.9884825199767497,
      -2.7988379352894985
    ],
    [
      1.871981804017009,
      3.864540220774499,
      -3.5290073442505605,
      2.5278514339567284,
      -0.2883452349849872,
      -0.9235543265025639
    ]
  ],
  "b1": [
    -0.7039892519832471,
    -0.009434416025256156,
    -0.42347235942461053,
    -1.5328320586599817,
    2.56857801694172,
    0.2877330013373158,
    0.9323523238202276,
    -0.6499635440697388
  ],
  "W2": [
    [
      -0.9393976001363363,
      -1.1909568011624152,
      -0.3131484590642725,
      1.10816972251333,
      -2.688831345038333,
      -1.337657573689971,
      -1.2117093108808803,
      1.3899334476757752
    ],
    [
      -0.6495324467566161,
      -1.2202586456174764,
      0.4712389604861784,
      0.7535349779090162,
      -2.7814549929248282,
      -0.8849572439597176,
      -1.1402459858017626,
      1.223188532622699
    ],
    [
      1.1586821117197814,
      0.9133211249176819,
      -0.5920299875935626,
      -1.078390453431756,
      0.009172965365892937,
      1.9722517736553327,
      1.1695030316699992,
      -2.6701355948025585
    ],
    [
      -1.2300767599836322,
      -0.7749791058683246,
      0.5063808669315949,
      0.6190636178933038,
      -1.5516588103454478,
      -0.9975590688542535,
      -1.3070090592702748,
      0.6558926837584592
    ],
    [
      0.9325682414548934,
      0.8939547851832588,
      -0.7063900148817812,
      -1.3031542506431626,
      -0.02498310088380512,
      1.5722095614923328,
      0.9310525780650105,
      -1.750078076215362
    ],
    [
      1.048578979688946,
      0.06401769751565478,
      -0.22733718899982544,
      -1.6304703110328231,
      0.2902738528592586,
      1.2843858219054318,
      0.8632956501261306,
      -2.0384141425770106
    ],
    [
      -1.5370346718629695,
      -0.8841142962565622,
      -0.20302296935307665,
      1.390321619615817,
      -0.5176081397698924,
      -1.2407856780693647,
      -0.9330196745113085,
      0.8477849005557251
    ],
    [
      0.8735571507152966,
      1.1923495756318614,
      -0.13822040678597436,
      -1.5423016037651345,
      2.821457013228845,
      1.51410536413516,
      1.4198516630511477,
      -1.124298628241058
    ]
  ],
  "b2": [
    -0.3861356424054514,
    -0.30335760691829416,
    -0.8826549445891076,
    -0.06261146663849763,
    -0.9491679823326469,
    -0.5326684508222779,
    0.45771256191220694,
    0.13962092841114948
  ],
  "W3": [
    [
      3.1809701791657514,
      2.8360104680020037,
      -2.866808718398244,
      2.118589637043851,
      -2.198354429554448,
      -2.125919062977118,
      2.0903291754208215,
      -2.799108836100752
    ]
  ],
  "b3": 0.7365489526429438
}