{
  "architecture": [
    7,
    16,
    12,
    8,
    4,
    1
  ],
  "layers": [
    {
      "layer": 1,
      "order": "16x7",
      "weights": [
        [
          -0.23641585712856572,
          -0.4305943813554603,
          -0.0646542416338592,
          0.07713719199781577,
          -0.2591880845030011,
          -0.08991667516446199,
          0.3286903143625179
        ],
        [
          -0.15275295208413,
          0.18050033070447355,
          -0.1841110731862811,
          0.025866346066407125,
          -0.05431664278099667,
          0.22726769163875238,
          -0.45612561640559374
        ],
        [
          0.2428932890496896,
          0.038832774248512565,
          0.7104443666827127,
          -0.07437036211953725,
          -0.30016587209888895,
          -0.24794787320365422,
          -0.5525643353320772
        ],
        [
          -0.024496175295285524,
          0.4390740041966433,
          0.07384510327031024,
          -0.009731847181295375,
          0.4455417284862965,
          0.15251739486701668,
          -0.4552682289600201
        ],
        [
          -0.36645664285207763,
          0.20988352536599275,
          0.22086408663899923,
          0.07932568256433088,
          0.2338858326718784,
          -0.027902460468620525,
          -0.009062335052714454
        ],
        [
          0.22530037981372644,
          -0.28125224507922325,
          0.8090425262068274,
          -0.04554436665065783,
          0.16871457958804345,
          0.26791631912260394,
          0.21917603537364042
        ],
        [
          0.23503060721510624,
          0.5133855833812441,
          -0.34714792670101674,
          -0.026666732345311122,
          0.06583357344758053,
          0.02367931717658937,
          -0.08475744320483801
        ],
        [
          -0.06543365566869379,
          0.24739319421866027,
          -0.044912632552324576,
          0.6787278511844357,
          -0.3391554674124095,
          -0.27297680670030217,
          0.4186621313905854
        ],
        [
          -0.092699846222252,
          0.1977610107809632,
          0.05852354651240123,
          0.43355480548818387,
          0.3017311264103548,
          0.4039139020953782,
          -0.19728737972978944
        ],
        [
          -0.4162194305174594,
          -0.4458329643663348,
          0.29043982388067363,
          -0.1542685364427659,
          0.1598841638961998,
          0.016077452781048128,
          -0.48607474886726826
        ],
        [
          0.15380552612768503,
          -0.1724000574289259,
          0.35793478049805433,
          -0.23018967975759055,
          0.04233732684031156,
          -0.13516882404299133,
          -0.4271857562048213
        ],
        [
          -0.12148720496850536,
          -0.3008139614030666,
          -0.07517030454594344,
          -0.008053601361400693,
          0.24997736600836276,
          0.2466726733279373,
          0.3282078649422773
        ],
        [
          0.09703678159516893,
          -0.18219698898993442,
          -0.3197958180040763,
          -0.39156724998103687,
          -0.10171349555441783,
          -0.04922648795937523,
          0.12012632558908964
        ],
        [
          -0.31656288671565835,
          -0.4640765048360049,
          -0.3184413490885383,
          0.1298847411505722,
          0.37081464015401827,
          0.19066599586419816,
          -0.3631498769836229
        ],
        [
          0.3965008521049799,
          -0.5712664022734607,
          0.3681525918689547,
          -0.1422088268376767,
          0.43192427985202975,
          0.3991862617920553,
          -0.0692624391469927
        ],
        [
          -0.35539646820894066,
          -0.3680245731939063,
          -0.49351736390934203,
          -0.49117047720289536,
          -0.3499773239843155,
          0.3048701294024103,
          0.12791055013955943
        ]
      ],
      "bias": [
        0.008662825296850044,
        0.0008869697369623236,
        0.04076638007013128,
        0.016595838572641942,
        -0.005237391653603269,
        0.04329741210136933,
        0.03499261846025073,
        0.08526371135805921,
        -0.034289514003338115,
        -0.011600305754054775,
        0.15236767463863174,
        0.027725680353689726,
        0.0,
        -0.00017458255162098457,
        0.08387085691149092,
        0.0
      ]
    },
    {
      "layer": 2,
      "order": "12x16",
      "weights": [
        [
          -0.19256065262743044,
          -0.1622129553882385,
          0.22957598735662318,
          0.17384537240114026,
          0.41709374192241694,
          0.44512323707864204,
          -0.008556257724833729,
          0.024916350253042348,
          0.11078060145166833,
          0.3276477243684054,
          0.08193865176300168,
          -0.08054532507116019,
          0.3707605180827286,
          -0.09203369555228313,
          0.0688172249063564,
          -0.4157292494159427
        ],
        [
          -0.1313298321467884,
          0.36925207152295625,
          -0.44984484132631664,
          -0.43730767026671885,
          0.23696400304856635,
          -0.23798196753991924,
          -0.17578636009259485,
          0.006998145784433585,
          0.10089544379873949,
          -0.034428510939652934,
          -0.21740153843820265,
          -0.2747803881289049,
          0.18159494570695045,
          -0.29133063307503565,
          0.13200884100540422,
          -0.1843891881924627
        ],
        [
          0.288854884121647,
          -0.3454991594155321,
          0.5527199863855305,
          -0.38323985771095403,
          -0.0704954690822803,
          0.6016598561281276,
          -0.510270721498783,
          -0.5367095549602272,
          0.11249941350166391,
          -0.42199835753029274,
          0.35342566162807176,
          -0.43086438440701164,
          0.16027788944316834,
          -0.28857982141279326,
          0.1638373851985639,
          0.21750118025212173
        ],
        [
          0.10725548633597368,
          0.10655718903637311,
          -0.1886380156904938,
          -0.21044838894047557,
          -0.24228673848087912,
          -0.3989671449450635,
          -0.32602974031018844,
          0.509548281176456,
          0.10152124208125428,
          0.23050098619388348,
          0.18408711186075713,
          0.32800329462967237,
          0.15027967736437509,
          -0.06105555526077511,
          -0.08765212605723575,
          -0.20222860448659424
        ],
        [
          -0.0901293816543827,
          -0.3364127544085385,
          0.10749441058533729,
          -0.3413612917107228,
          0.44149623591799375,
          -0.054484256210265675,
          -0.24300247636810932,
          0.3365428195698035,
          -0.32043490133771385,
          -0.08548319863491523,
          0.19368021205333383,
          -0.4531165622248674,
          -0.4230135190414434,
          0.3239357618834937,
          -0.17311843594639695,
          -0.22059289128602644
        ],
        [
          0.028610216358795116,
          -0.1802250365576149,
          0.2515736825743658,
          0.07387380515290565,
          0.29269979169943977,
          -0.20152464656941976,
          -0.15349530165797248,
          0.015346595996565342,
          -0.3069078552298938,
          -0.1942155926001772,
          0.4079178742618053,
          -0.01826949176767642,
          0.3522766851004243,
          -0.34555972014298425,
          -0.15071233020899075,
          -0.0168850015782378
        ],
        [
          0.11827044121954196,
          -0.1595855047121411,
          0.379158887622746,
          0.008707455311365051,
          0.031865857044369346,
          -0.2688671114406524,
          -0.13246908736013788,
          -0.3357659575317411,
          0.27416828873419846,
          -0.1444387855979624,
          0.24545936488785217,
          0.3785195028923122,
          -0.3386436312677776,
          -0.1881962343091422,
          0.20431584427001634,
          -0.3089896330800741
        ],
        [
          0.3982805879395309,
          0.0867587732199705,
          0.37703989195583276,
          -0.24144276206329793,
          -0.3606955773704892,
          0.3333073256811443,
          -0.14026057119428034,
          -0.029276632576764206,
          -0.08858193656899059,
          0.08844660670982249,
          0.5111318369435256,
          0.4423600214495278,
          -0.2842177383103164,
          0.12405620001184904,
          0.7484617192306428,
          0.07601464830241145
        ],
        [
          0.21121212983677617,
          -0.019938713357984417,
          -0.20894023655273253,
          0.011488726004338812,
          -0.22460104984742774,
          -0.4280936358575244,
          -0.0869881879674741,
          -0.3206911288005091,
          0.034525246388794784,
          -0.11009399146407206,
          -0.40860232081908276,
          -0.38520115456852977,
          -0.2217994958602067,
          0.29197318087846935,
          0.3695815834932885,
          0.42204374725292615
        ],
        [
          -0.44851482816089044,
          0.2924671404147903,
          -0.38172466374622593,
          0.34448560060639083,
          -0.11409619127959363,
          -0.24637163234726125,
          -0.16635572595146236,
          0.15400623372388733,
          0.1293552506990218,
          0.18787474739008303,
          -0.10551579074375596,
          0.11541322824968939,
          0.29417853609574474,
          -0.029946079144299753,
          -0.22193532276141095,
          -0.3033969932053945
        ],
        [
          -0.02957377775806787,
          -0.15698972272958844,
          0.13063036242773018,
          -0.09597386236341875,
          -0.19356515161337726,
          -0.1904029697115065,
          0.30319032326010226,
          0.2587031733374269,
          0.2278546285657657,
          0.1514257986670501,
          0.2111929857892853,
          0.12918185464707707,
          0.11717446468571158,
          -0.03148758055080951,
          0.08144696515711021,
          -0.1999396415151274
        ],
        [
          0.0750980456549315,
          0.2707717356027261,
          -0.03734130701035909,
          0.2087761504910239,
          0.35570379465491836,
          -0.1085461120493239,
          0.06883242505533764,
          -0.2249911958420506,
          -0.33182038276388104,
          -0.30364178212851967,
          0.32168797737453797,
          -0.3549560678061814,
          0.24622888223087647,
          0.17994726531858785,
          -0.10381576770079168,
          -0.30137863241943125
        ]
      ],
      "bias": [
        -0.030241172172861798,
        0.0,
        0.08161689133320428,
        0.0562190176764872,
        -0.008029483234622097,
        0.02659277667616019,
        0.04451005124090412,
        -0.02536081372127645,
        0.0,
        -0.015861583035737606,
        -0.004906443554819846,
        0.003079329367394131
      ]
    },
    {
      "layer": 3,
      "order": "8x12",
      "weights": [
        [
          0.2716413099797133,
          -0.24356870952424986,
          0.3980863073853667,
          0.4942876160235408,
          -0.225739476490107,
          -0.27310980179629996,
          0.4640383465607081,
          -0.5224199831806822,
          -0.30459610175091156,
          -0.3407480013847093,
          0.19667759744078922,
          0.2135751116915449
        ],
        [
          -0.5411607402336498,
          -0.022583483452683795,
          -0.052729693954214896,
          -0.5233969120792863,
          -0.5154630862399533,
          0.3579823196256454,
          0.18014776398506427,
          -0.17452799811152214,
          -0.15202229639601533,
          -0.11453941764208886,
          -0.5208164569479216,
          0.4391731756924363
        ],
        [
          -0.4677605074256448,
          -0.11676351712606514,
          -0.3443737899225817,
          -0.10874160237586275,
          -0.46356033305330835,
          0.30559408948071465,
          -0.04263444771741731,
          -0.49780970923955326,
          -0.20127098394848736,
          0.06124461224997842,
          0.32127909406391086,
          -0.32400962377546066
        ],
        [
          -0.42563604355125745,
          -0.3247795844248028,
          0.07545585693519652,
          0.2203005501652515,
          0.5180484958738255,
          -0.547676475009294,
          0.2789865928086671,
          -0.5402192396524987,
          -0.08179452056379727,
          0.013384303461249991,
          -0.41744152958827707,
          0.3206752658749501
        ],
        [
          -0.22912237485141926,
          0.13764536937006056,
          0.7941551358329091,
          0.18512564461578185,
          -0.28157668898048016,
          0.5849785541165468,
          0.19164499495764364,
          0.6934161695836238,
          0.21674248878295388,
          0.01018430717796551,
          -0.47032035161522096,
          0.1332860996588247
        ],
        [
          0.3008862585954515,
          -0.4587572176155033,
          0.6427723953659527,
          -0.32264844027865414,
          0.0033468152526613068,
          -0.23030078062641077,
          0.0864079802638538,
          0.8126662775916329,
          0.21361771516051187,
          0.4259843334860347,
          -0.06520740253516644,
          0.417271998623777
        ],
        [
          0.31045190771232684,
          0.23742531761588903,
          -0.11787604661736914,
          -0.12535239833544562,
          -0.2714173737863142,
          -0.013161498214046396,
          0.5352828186365461,
          -0.4691260971700461,
          0.3038912062955573,
          0.4347374365498995,
          -0.07667277385870251,
          -0.3268230309757124
        ],
        [
          0.27432154166976386,
          0.43090913996471303,
          -0.36575604070617707,
          -0.3695993744086717,
          0.09848307406436263,
          0.16148853289521176,
          -0.20894252645950884,
          -0.5427511519622068,
          0.19363536609673793,
          -0.24537407739083394,
          0.1073790918091505,
          0.010324146379982387
        ]
      ],
      "bias": [
        -0.018911450816327138,
        0.0,
        -6.01261630728306e-06,
        0.00013669020973974496,
        -0.013815674164662957,
        -0.06274975338952767,
        0.02384173411383857,
        -0.060835754999744675
      ]
    },
    {
      "layer": 4,
      "order": "4x8",
      "weights": [
        [
          0.32278006976894524,
          0.5767650928304368,
          0.055330251918942835,
          0.47469875578268467,
          0.12434819302146882,
          0.41092171956877827,
          0.2575233560758263,
          0.3751386544585744
        ],
        [
          -0.05604548874503234,
          0.6533537227261307,
          -0.18337668606680113,
          -0.21693128144199525,
          0.9988253680953059,
          1.0295847338604345,
          -0.4310450329585981,
          0.21252436892470788
        ],
        [
          -0.14491526358260803,
          -0.4087785367226032,
          0.6052902690546417,
          0.4916322146163442,
          0.3188256199872952,
          -0.22607818603750648,
          -0.37483281718760997,
          0.6146677694645123
        ],
        [
          0.2794039205267601,
          0.15324492982958693,
          0.28181808190931534,
          -0.4818279944885605,
          -0.08345634075707445,
          0.5234519767153949,
          0.6916859113594724,
          0.11607939486156205
        ]
      ],
      "bias": [
        0.2109598762301155,
        -0.16500862165475544,
        -0.058401549541245525,
        -0.07762362251474117
      ]
    },
    {
      "layer": 5,
      "order": "1x4",
      "weights": [
        [
          0.24372093062789657,
          -1.6763710134478318,
          0.6232152075578258,
          -0.5064141494967463
        ]
      ],
      "bias": 0.8077574862323145
    }
  ]
}