{
  "architecture": [
    7,
    16,
    12,
    8,
    4,
    1
  ],
  "layers": [
    {
      "layer": 1,
      "order": "16x7",
      "weights": [
        [
          -0.37364719113549216,
          -0.14162969505768916,
          -0.22376643586076217,
          0.12478651357716503,
          -0.18272830359075734,
          -0.3820314131222381,
          -0.17492695949975942
        ],
        [
          0.32505739641715575,
          -0.34645702925296484,
          -0.44272125764975795,
          0.3203471463619271,
          0.29684560168617014,
          0.07298931577663358,
          -0.2266586390041466
        ],
        [
          0.11840695146455198,
          0.001197942607783634,
          0.20206153820414355,
          -0.2158718350003247,
          0.2386161070218791,
          -0.316681095730301,
          -0.13634304840276704
        ],
        [
          0.1871883075103092,
          -0.20687329984951805,
          -0.037124248283856395,
          0.1964549496708273,
          -0.2157360744487218,
          -0.20363210828596492,
          -0.4276167873138646
        ],
        [
          0.19667518793184796,
          0.7060307090054121,
          -0.3988760634554682,
          0.6572643037980856,
          -0.12056203275029179,
          -0.24757410004619673,
          0.6151401943453036
        ],
        [
          -0.0906965064565771,
          -0.19034895694046522,
          -0.2712697251290663,
          -0.4729982820477493,
          -0.4818418111129036,
          0.02471683521613735,
          -0.07912848016366619
        ],
        [
          0.1641357739034976,
          0.015731610730363013,
          0.20358421820711103,
          0.33305932987480347,
          -0.17311830615167395,
          0.3821680457519491,
          -0.32752487492653215
        ],
        [
          -0.2996317829694284,
          0.1513762274808062,
          -0.5137399873025124,
          -0.16280401758790206,
          -0.0170178284376393,
          0.3359169060957513,
          0.4137279048331357
        ],
        [
          -0.2529309329949368,
          -0.24771316189303985,
          -0.13363325421539152,
          -0.3060887805025695,
          -0.3781353682160291,
          0.2857691163240431,
          -0.21099189588889242
        ],
        [
          -0.10670250298800973,
          0.6880061074264087,
          -0.5932561859768858,
          0.6090313222677031,
          -0.20875569358621687,
          0.05000131612924005,
          0.3523069706407427
        ],
        [
          -0.20154022768759697,
          0.277166441437923,
          0.5724688930291357,
          0.10100862292859536,
          0.3007715995351558,
          0.1642584068517845,
          -0.1578893867777693
        ],
        [
          0.022799710824886646,
          0.10219118991858274,
          -0.2292903154194231,
          0.027449621326089683,
          -0.189205858601237,
          0.004533893047044778,
          -0.049311021754522594
        ],
        [
          0.29717140907640216,
          -0.34338780048737083,
          0.6721167726318656,
          0.16284073307402977,
          -0.41651384737378977,
          -0.1507837381630537,
          0.13200768729428372
        ],
        [
          0.037029339311526716,
          0.3202065492143197,
          -0.03366433352607358,
          -0.4803334145859809,
          0.24642770795088864,
          0.030457088336468523,
          0.18582663521259477
        ],
        [
          -0.2877462346944565,
          -0.3904547407854509,
          -0.41622705117730174,
          -0.04660410348007277,
          -0.14497772581068097,
          -0.2946486818815946,
          -0.39493818471382336
        ],
        [
          -0.3480818770422734,
          0.031322142505864355,
          -0.026392743760473923,
          -0.06420805331507931,
          0.23184136672976507,
          0.3420706964207778,
          -0.0021948029582455767
        ]
      ],
      "bias": [
        -0.06900233028000258,
        -0.040801942204381006,
        0.007293910920343117,
        0.01620451917858686,
        0.1204920415995834,
        0.002121463697017129,
        -0.04629688534852744,
        -0.07662476204019542,
        -0.043519090861542264,
        0.16830596521936866,
        -0.04663656195930928,
        -0.10019020250372972,
        0.19025439882563097,
        -0.03773250402478571,
        0.0,
        -0.05464461114242772
      ]
    },
    {
      "layer": 2,
      "order": "12x16",
      "weights": [
        [
          0.13199781202713434,
          0.21321349273443413,
          0.05919060162560207,
          0.3380803538752276,
          0.05200562196936398,
          0.3604135487657613,
          0.10659548505558239,
          0.3515146639772044,
          0.04862104341766033,
          -0.2817428062448002,
          0.4552823683376751,
          0.15674216813540534,
          -0.0017891633513600657,
          0.41135227224624615,
          -0.4462607504122229,
          0.45319395475354185
        ],
        [
          -0.43140565025742267,
          0.35842711980635045,
          -0.04307559906732985,
          -0.11971224904457448,
          0.15088654726696046,
          -0.017737367263179066,
          0.042293391177436065,
          -0.22980796103322823,
          0.38541743319039246,
          0.43827515180414167,
          -0.10885534359164974,
          -0.18886107670092758,
          -0.237292796531799,
          0.23746379041843052,
          -0.09709684584150197,
          0.2047546682188281
        ],
        [
          -0.4246575559686931,
          0.03245211973272079,
          0.1652804939954537,
          -0.1613303147332857,
          -0.25992707827250916,
          0.20005787979490927,
          -0.38398898754410765,
          -0.311943607868067,
          0.06725011206106675,
          0.2496239585540559,
          -0.09694598488209219,
          -0.07137200304951825,
          0.3803453347100099,
          0.28674867670614956,
          -0.08489447291016011,
          0.20711813137126736
        ],
        [
          -0.367218982236775,
          -0.41309744471484355,
          0.040666942647729805,
          -0.32220792014580146,
          0.3541153037483652,
          0.04716837773190665,
          -0.3106893503657257,
          0.23957053729769937,
          -0.09676525515449534,
          0.4211291395692154,
          -0.14412539950722614,
          -0.05560794126699918,
          -0.1744084469194791,
          0.4679647487925082,
          0.281062996148838,
          -0.36962206737639763
        ],
        [
          0.38249388170220644,
          -0.0809669486160355,
          -0.07052957095666586,
          -0.1627467496879302,
          0.6988161658857968,
          -0.3620880565731173,
          0.13630483464745985,
          -0.045767033585473335,
          -0.3961082658990151,
          0.2672499474574355,
          -0.1284921953865032,
          -0.33780234487511285,
          -0.5654040645198389,
          -0.11935686446039316,
          0.4625636430204879,
          0.06406875821095995
        ],
        [
          -0.12168596803494101,
          0.27678857414293623,
          0.04402167444075641,
          0.2548436901376949,
          0.5946327184086475,
          -0.3003950746351569,
          0.36642355683275657,
          -0.28510708173094457,
          -0.08719440308962013,
          0.40896116143270694,
          -0.23551705145615454,
          0.06347773577133813,
          -0.26614838261756246,
          -0.14248384511361925,
          -0.31548158820451644,
          -0.10884353582503052
        ],
        [
          0.24259249660499868,
          0.07575204989033926,
          0.1997228978565102,
          0.20186428646296042,
          -0.26822725868099523,
          -0.4491234122295979,
          -0.310472000716531,
          0.2675684826891923,
          0.018744794641207988,
          -0.1000343427812085,
          -0.13830352149799224,
          0.3233224350970221,
          0.44171762887923144,
          -0.21828798496371501,
          0.17515874051896874,
          -0.3950149523900073
        ],
        [
          -0.18013661459081923,
          -0.23630648705037474,
          -0.058477259141331034,
          0.15908697961147508,
          -0.1735529234268703,
          0.03939441186902757,
          -0.3253693281152564,
          0.39737216124301744,
          -0.40084688772861504,
          -0.08229437400936923,
          -0.12881436264740215,
          -0.13605952777486166,
          0.411793048741729,
          -0.26368833316333834,
          -0.3151606238076843,
          0.05449492154798042
        ],
        [
          0.17886426721996385,
          0.43255515274040635,
          0.11878159141153699,
          0.06396748790462237,
          -0.3765911771893497,
          -0.4026167252119623,
          -0.4245584477790406,
          -0.22132490402791688,
          0.38585378971840034,
          -0.18458096287295755,
          -0.35639694561162577,
          -0.03718335760724101,
          -0.2709983965859367,
          -0.08886438472031788,
          0.029563809336110414,
          -0.3724779602965252
        ],
        [
          -0.2019387052298603,
          -0.3461190801940051,
          -0.21333683613590573,
          0.21455796667113702,
          -0.14988250154320665,
          0.007250376341810305,
          0.09197628149480297,
          -0.004113064975826419,
          -0.4081167064721669,
          -0.31819358816322646,
          -0.2577389638365523,
          -0.36791545040880735,
          -0.06606164503228995,
          -0.41457923587014056,
          -0.25220042895414585,
          -0.04631777334385373
        ],
        [
          0.31055814194664993,
          0.10798090169212296,
          -0.062001064195434365,
          0.10841929463404812,
          0.5887845190860491,
          0.194764886017174,
          -0.2867522387552444,
          -0.3365322287055345,
          0.26921823504255565,
          0.5635756763747228,
          0.020256537060176487,
          0.12772466268664845,
          -0.3116279218986739,
          0.3056181462868777,
          0.20598371982898178,
          0.1866928741466411
        ],
        [
          -0.32360148514383036,
          -0.2944969731694577,
          -0.2454635193700622,
          -0.3286653698045439,
          -0.23913411044939076,
          0.4182523611802601,
          0.19201059032505333,
          0.33931589417740843,
          0.11505502288177176,
          -0.45901952141081204,
          -0.1336833022810938,
          -0.013185608367605888,
          -0.14533556300119888,
          -0.0199984445573413,
          -0.35047867103012453,
          0.053043763285433046
        ]
      ],
      "bias": [
        0.03338372695765473,
        0.05999720316419075,
        -0.052325558184171145,
        0.09833261564984797,
        0.06584735051415821,
        0.07821143600558884,
        0.11190565873790054,
        -0.006750020984057898,
        0.0,
        0.0,
        -0.03973158925528311,
        -0.0034086057530035535
      ]
    },
    {
      "layer": 3,
      "order": "8x12",
      "weights": [
        [
          -0.043393369077561,
          -0.281042766499743,
          0.2534450201353459,
          0.2647475868584122,
          0.27192813279170275,
          -0.047309742648667344,
          0.26216599814863184,
          -0.4894940867586215,
          0.3105699400629822,
          0.2031824470654625,
          0.24610783009523468,
          -0.36278979688689517
        ],
        [
          0.5451413369289351,
          0.03765833327064243,
          -0.3374722210909176,
          -0.40375999707219073,
          0.09398404868939504,
          0.5914621093208405,
          -0.045271055245391066,
          -0.3246434904966787,
          0.4277817620051211,
          -0.22332132421218337,
          -0.0414065177143794,
          -0.0059946509806613
        ],
        [
          -0.18254129155841523,
          0.45113103194531096,
          0.06681196457607201,
          -0.06058506410882113,
          -0.48210164964522273,
          -0.3605287648800098,
          -0.48555247778566013,
          -0.14712296436698108,
          0.5222734764323322,
          0.154032726311364,
          0.37224388485881793,
          -0.12334280386719038
        ],
        [
          -0.30460093722309356,
          -0.14173567131065543,
          -0.2356772618468536,
          0.1628050937589574,
          0.6329565711572681,
          0.4440000026472042,
          -0.5593174937553463,
          -0.43151979119469663,
          0.4621668398866321,
          0.40349640814953636,
          0.6308144323369728,
          0.19872201068084114
        ],
        [
          -0.12242582509140906,
          -0.3335652875452759,
          0.47722863281478184,
          -0.3833295933506176,
          -0.410887769349009,
          0.07502521480588421,
          0.1760023336922148,
          -0.5450722662095591,
          -0.3838349142496005,
          -0.31463522213558603,
          0.22186307754350318,
          -0.05981416095207054
        ],
        [
          -0.24425909606821725,
          0.5736213014766318,
          -0.416665595224923,
          0.4411426862530757,
          0.573319663200974,
          0.03775602167460787,
          -0.10735966840477934,
          -0.40119345186573885,
          -0.3435962771005546,
          -0.5434323527325577,
          0.12471626778651827,
          0.09311955814294644
        ],
        [
          -0.43595697814544404,
          0.0981789641250791,
          -0.04058557307495517,
          -0.10965031403297416,
          0.5209060065226168,
          0.4485382664358918,
          -0.0719196343861305,
          -0.48415130026676856,
          0.26984888451904976,
          -0.28461619789561743,
          0.14297102842407125,
          0.2235289579684017
        ],
        [
          -0.33044370054263555,
          0.33801670039012083,
          -0.36734044549820405,
          0.50062287740869,
          0.3908447313665674,
          0.22919178553190564,
          -0.572970451838581,
          0.5118223447372113,
          0.003913095192033977,
          -0.47332890870816047,
          0.7697901752331016,
          -0.11303525170113678
        ]
      ],
      "bias": [
        -0.07958449093723109,
        0.062994689613641,
        0.0005708658456946416,
        0.02111859312997292,
        -0.0846110511201848,
        -0.03849047263299904,
        0.11731938200307189,
        -0.08386774752316987
      ]
    },
    {
      "layer": 4,
      "order": "4x8",
      "weights": [
        [
          0.4113526230447928,
          -0.11870701668691197,
          0.4155802773337904,
          0.6409022837108691,
          0.09844221856876431,
          -0.34714462313784916,
          -0.35387238793385917,
          0.02408171057247074
        ],
        [
          -0.22426368087805315,
          0.5911941958254284,
          0.288816026525206,
          0.5136441918486173,
          -0.16678236375279404,
          0.7327979352197771,
          0.6285103732616388,
          0.8394766237149489
        ],
        [
          -0.33033375356844336,
          0.5282905831249434,
          0.2869658995615736,
          0.6156276817162898,
          0.5785429242231424,
          -0.10986382773143608,
          0.19640239837441323,
          0.3155155161173948
        ],
        [
          -0.6757482874181439,
          0.4149301619151629,
          -0.03993703052407496,
          0.026116301904822392,
          -0.6222327906010979,
          -0.7487771676262027,
          0.5562211164922107,
          -0.8039381921901815
        ]
      ],
      "bias": [
        0.007388330800147348,
        -0.24903380762469615,
        -0.17840253764463768,
        0.9778520853253531
      ]
    },
    {
      "layer": 5,
      "order": "1x4",
      "weights": [
        [
          0.29080420701453397,
          1.1418292719735168,
          0.581237912736135,
          -1.566578945929995
        ]
      ],
      "bias": -0.5820120765073308
    }
  ]
}